%YAML:1.0
---
opencv_ml_svm:
   format: 3
   svmType: C_SVC
   kernel:
      type: RBF
      gamma: 115.
   C: 10.
   term_criteria: { epsilon:1.1920928955078125e-07, iterations:1000 }
   var_count: 13
   class_count: 3
   class_labels: !!opencv-matrix
      rows: 3
      cols: 1
      dt: i
      data: [ 0, 1, 2 ]
   sv_total: 95
   support_vectors:
      - [ -9.19471979e-01, -8.44640017e-01, -9.99787986e-01,
          -9.97348011e-01, -9.95275974e-01, -9.38791990e-01,
          -9.99996006e-01, -9.97488022e-01, -9.99783993e-01,
          -9.99736011e-01, -9.99827981e-01, -9.94567990e-01,
          -9.52787995e-01 ]
      - [ -9.50600028e-01, -8.06976020e-01, -9.99848008e-01,
          -9.94892001e-01, -9.86751974e-01, -9.56035972e-01,
          -9.99992013e-01, -9.97704029e-01, -9.99779999e-01,
          -9.99764025e-01, -9.99836028e-01, -9.94567990e-01,
          -5.56379974e-01 ]
      - [ -9.35931981e-01, -8.06327999e-01, -9.99444008e-01,
          -9.95299995e-01, -9.99279976e-01, -9.62472022e-01,
          -9.96379972e-01, -9.97663975e-01, -9.99772012e-01,
          -9.99867976e-01, -9.99888003e-01, -9.94567990e-01,
          -5.93604028e-01 ]
      - [ -9.51864004e-01, -8.32332015e-01, -9.98787999e-01,
          -9.59231973e-01, -9.99055982e-01, -9.56296027e-01,
          -9.97811973e-01, -9.97420013e-01, -9.99772012e-01,
          -9.99804020e-01, -9.99848425e-01, -9.94567990e-01,
          -8.28400016e-01 ]
      - [ -9.99571979e-01, -7.90495992e-01, -9.99119997e-01,
          -9.99924004e-01, -9.97088015e-01, -9.27695990e-01,
          -9.81339991e-01, -9.97564018e-01, -9.99772012e-01,
          -9.99787986e-01, -9.99840379e-01, -9.94567990e-01,
          -9.18799996e-01 ]
      - [ -9.59312022e-01, -8.58492017e-01, -9.99535978e-01,
          -9.81383979e-01, -9.86339986e-01, -9.11267996e-01,
          -9.99939978e-01, -9.96528029e-01, -9.99771178e-01,
          -9.99764025e-01, -9.99828815e-01, -9.94567990e-01,
          -8.37188005e-01 ]
      - [ -9.55695987e-01, -9.81840014e-01, -9.99939978e-01,
          -9.75488007e-01, -9.91396010e-01, -7.91451991e-01,
          -9.98860002e-01, -9.98127997e-01, -9.99768376e-01,
          -9.99812007e-01, -9.99848425e-01, -9.94567990e-01,
          -8.71991992e-01 ]
      - [ -9.65831995e-01, -8.47195983e-01, -9.98696029e-01,
          -9.79884028e-01, -9.76823986e-01, -9.26900029e-01,
          -9.99876022e-01, -9.97591972e-01, -9.99768376e-01,
          -9.99768019e-01, -9.99827981e-01, -9.94567990e-01,
          -8.31184030e-01 ]
      - [ -9.93272007e-01, -7.79788017e-01, -9.99375999e-01,
          -9.85167980e-01, -9.99723971e-01, -9.49347973e-01,
          -9.88644004e-01, -9.97479975e-01, -9.99768376e-01,
          -9.99759972e-01, -9.99823570e-01, -9.94567990e-01,
          -9.19200003e-01 ]
      - [ -9.88683999e-01, -8.45179975e-01, -9.98911977e-01,
          -9.66844022e-01, -9.99000013e-01, -9.12868023e-01,
          -9.83852029e-01, -9.97460008e-01, -9.99764025e-01,
          -9.99867976e-01, -9.99880016e-01, -9.94567990e-01,
          -8.74000013e-01 ]
      - [ -9.48971987e-01, -8.28159988e-01, -9.99624014e-01,
          -9.77603972e-01, -9.98979986e-01, -9.42951977e-01,
          -9.99068022e-01, -9.97439981e-01, -9.99764025e-01,
          -9.99795973e-01, -9.99836028e-01, -9.94567990e-01,
          -8.74400020e-01 ]
      - [ -9.24319983e-01, -8.30479980e-01, -9.99647975e-01,
          -9.96980011e-01, -9.95555997e-01, -9.48700011e-01,
          -9.99487996e-01, -9.97627974e-01, -9.99759614e-01,
          -9.99880016e-01, -9.99888003e-01, -9.94567990e-01,
          -5.92796028e-01 ]
      - [ -9.32659984e-01, -8.22008014e-01, -9.99596000e-01,
          -9.97092009e-01, -9.85404015e-01, -9.58635986e-01,
          -9.99967992e-01, -9.97435987e-01, -9.99759614e-01,
          -9.99859989e-01, -9.99872029e-01, -9.94567990e-01,
          -5.94788015e-01 ]
      - [ -9.24160004e-01, -8.29696000e-01, -9.99719977e-01,
          -9.97196019e-01, -9.95032012e-01, -9.51716006e-01,
          -9.97651994e-01, -9.97627974e-01, -9.99759614e-01,
          -9.99836028e-01, -9.99855995e-01, -9.94567990e-01,
          -5.96396029e-01 ]
      - [ -9.37372029e-01, -8.57735991e-01, -9.99339998e-01,
          -9.75148022e-01, -9.95423973e-01, -9.36248004e-01,
          -9.94159997e-01, -9.97371972e-01, -9.99759614e-01,
          -9.99831975e-01, -9.99852002e-01, -9.94567990e-01,
          -8.37599993e-01 ]
      - [ -9.27031994e-01, -8.20572019e-01, -9.99563992e-01,
          -9.92447972e-01, -9.97335970e-01, -9.58483994e-01,
          -9.99912024e-01, -9.97452021e-01, -9.99759614e-01,
          -9.99795973e-01, -9.99831617e-01, -9.94567990e-01,
          -8.77596021e-01 ]
      - [ -9.26648021e-01, -8.34411979e-01, -9.99563992e-01,
          -9.95284021e-01, -9.98004019e-01, -9.41331983e-01,
          -9.99596000e-01, -9.97959971e-01, -9.99755979e-01,
          -9.99912024e-01, -9.99912381e-01, -9.94567990e-01,
          -5.58791995e-01 ]
      - [ -9.94719982e-01, -8.29859972e-01, -9.99707997e-01,
          -9.90827978e-01, -9.67343986e-01, -9.12955999e-01,
          -9.99956012e-01, -9.97428000e-01, -9.99755979e-01,
          -9.99855995e-01, -9.99863982e-01, -9.94567990e-01,
          -8.33980024e-01 ]
      - [ -9.27128017e-01, -8.28963995e-01, -9.99747992e-01,
          -9.96948004e-01, -9.92780030e-01, -9.50232029e-01,
          -9.99444008e-01, -9.97555971e-01, -9.99755979e-01,
          -9.99844015e-01, -9.99855995e-01, -9.94567990e-01,
          -5.93195975e-01 ]
      - [ -9.02880013e-01, -8.47891986e-01, -9.99248028e-01,
          -9.93807971e-01, -9.98499990e-01, -9.53252017e-01,
          -9.99635994e-01, -9.97583985e-01, -9.99755979e-01,
          -9.99751985e-01, -9.99808013e-01, -9.94567990e-01,
          -5.58799982e-01 ]
      - [ -9.28048015e-01, -8.49900007e-01, -9.99779999e-01,
          -9.96316016e-01, -9.97923970e-01, -9.23075974e-01,
          -9.99668002e-01, -9.98088002e-01, -9.99751627e-01,
          -9.99903977e-01, -9.99899983e-01, -9.94567990e-01,
          -5.58391988e-01 ]
      - [ -9.24611986e-01, -8.29728007e-01, -9.99743998e-01,
          -9.96980011e-01, -9.92388010e-01, -9.52152014e-01,
          -9.99556005e-01, -9.97640014e-01, -9.99751627e-01,
          -9.99836028e-01, -9.99848425e-01, -9.94567990e-01,
          -5.95196009e-01 ]
      - [ -9.59627986e-01, -8.06079984e-01, -9.99432027e-01,
          -9.92424011e-01, -9.98899996e-01, -9.46024001e-01,
          -9.92771983e-01, -9.97539997e-01, -9.99751627e-01,
          -9.99836028e-01, -9.99848425e-01, -9.94567990e-01,
          -5.59203982e-01 ]
      - [ -9.54343975e-01, -8.44987988e-01, -9.98571992e-01,
          -9.60439980e-01, -9.96472001e-01, -9.43928003e-01,
          -9.96712029e-01, -9.97344017e-01, -9.99751627e-01,
          -9.99800026e-01, -9.99827981e-01, -9.94567990e-01,
          -8.29599977e-01 ]
      - [ -9.95191991e-01, -9.76772010e-01, -9.99899983e-01,
          -9.89387989e-01, -9.82403994e-01, -7.58336008e-01,
          -9.99956012e-01, -9.90851998e-01, -9.99749601e-01,
          -9.99819994e-01, -9.99836028e-01, -9.94567990e-01,
          -8.74387980e-01 ]
      - [ -9.38144028e-01, -9.48971987e-01, -9.99191999e-01,
          -9.85432029e-01, -9.87028003e-01, -8.36328030e-01,
          -9.99575973e-01, -9.98127997e-01, -9.99747992e-01,
          -9.99791980e-01, -9.99819994e-01, -9.94567990e-01,
          -8.71591985e-01 ]
      - [ -9.22172010e-01, -8.33523989e-01, -9.98304009e-01,
          -9.86335993e-01, -9.97132003e-01, -9.58483994e-01,
          -9.98892009e-01, -9.97955978e-01, -9.99743998e-01,
          -9.99952018e-01, -9.99960005e-01, -9.94567990e-01,
          -7.96791971e-01 ]
      - [ -9.56395984e-01, -8.37595999e-01, -9.98772025e-01,
          -9.79520023e-01, -9.81491983e-01, -9.41604018e-01,
          -9.99967992e-01, -9.97452021e-01, -9.99743998e-01,
          -9.99880016e-01, -9.99872029e-01, -9.94567990e-01,
          -8.70783985e-01 ]
      - [ -9.35948014e-01, -8.06307971e-01, -9.99552011e-01,
          -9.95832026e-01, -9.98351991e-01, -9.62112010e-01,
          -9.97160017e-01, -9.97536004e-01, -9.99743998e-01,
          -9.99783993e-01, -9.99812424e-01, -9.94567990e-01,
          -5.96804023e-01 ]
      - [ -9.62383986e-01, -8.61679971e-01, -9.97575998e-01,
          -9.58652020e-01, -9.98203993e-01, -9.23484027e-01,
          -9.93332028e-01, -9.97488022e-01, -9.99743998e-01,
          -9.99759972e-01, -9.99800026e-01, -9.94567990e-01,
          -7.99199998e-01 ]
      - [ -9.44144011e-01, -8.05980027e-01, -9.99628007e-01,
          -9.87619996e-01, -9.98196006e-01, -9.68123972e-01,
          -9.90504026e-01, -9.98604000e-01, -9.99740422e-01,
          -9.99852002e-01, -9.99848425e-01, -9.94567990e-01,
          -7.97604024e-01 ]
      - [ -9.96259987e-01, -7.48492002e-01, -9.99895990e-01,
          -9.77675974e-01, -9.99795973e-01, -9.80804026e-01,
          -9.90863979e-01, -9.99011993e-01, -9.99740422e-01,
          -9.99840021e-01, -9.99840379e-01, -9.94567990e-01,
          -8.30403984e-01 ]
      - [ -9.78056014e-01, -8.31052005e-01, -9.99711990e-01,
          -9.59652007e-01, -9.99895990e-01, -9.43120003e-01,
          -9.83780026e-01, -9.97532010e-01, -9.99743998e-01,
          -9.99816000e-01, -9.99827981e-01, -9.94567990e-01,
          -7.55559981e-01 ]
      - [ -9.35119987e-01, -8.07803988e-01, -9.99552011e-01,
          -9.95660007e-01, -9.99100029e-01, -9.60947990e-01,
          -9.97232020e-01, -9.97384012e-01, -9.99736011e-01,
          -9.99912024e-01, -9.99895573e-01, -9.94567990e-01,
          -6.28804028e-01 ]
      - [ -9.91656005e-01, -8.30107987e-01, -9.99140024e-01,
          -9.72292006e-01, -9.76736009e-01, -9.29668009e-01,
          -9.99979973e-01, -9.93219972e-01, -9.99736011e-01,
          -9.99891996e-01, -9.99876380e-01, -9.94567990e-01,
          -7.90780008e-01 ]
      - [ -9.39840019e-01, -8.23188007e-01, -9.99776006e-01,
          -9.96428013e-01, -9.90584016e-01, -9.45595980e-01,
          -9.99992013e-01, -9.97395992e-01, -9.99736011e-01,
          -9.99848008e-01, -9.99840379e-01, -9.94567990e-01,
          -6.33188009e-01 ]
      - [ -9.85336006e-01, -8.85043979e-01, -9.98332024e-01,
          -9.70788002e-01, -9.89152014e-01, -8.68672013e-01,
          -9.99455988e-01, -9.96020019e-01, -9.99736011e-01,
          -9.99840021e-01, -9.99836028e-01, -9.94567990e-01,
          -7.99588025e-01 ]
      - [ -9.32972014e-01, -8.29043984e-01, -9.98000026e-01,
          -9.96195972e-01, -9.94495988e-01, -9.45599973e-01,
          -9.99004006e-01, -9.97488022e-01, -9.99736011e-01,
          -9.99831975e-01, -9.99831617e-01, -9.94567990e-01,
          -6.28795981e-01 ]
      - [ -9.62339997e-01, -9.15171981e-01, -9.99588013e-01,
          -9.76931989e-01, -9.88048017e-01, -8.53507996e-01,
          -9.99844015e-01, -9.97367978e-01, -9.99736011e-01,
          -9.99800026e-01, -9.99812424e-01, -9.94567990e-01,
          -8.36787999e-01 ]
      - [ -9.23255980e-01, -8.37068021e-01, -9.99984026e-01,
          -9.96212006e-01, -9.96411979e-01, -9.42423999e-01,
          -9.99827981e-01, -9.97615993e-01, -9.99736011e-01,
          -9.99759972e-01, -9.99791980e-01, -9.94567990e-01,
          -5.97591996e-01 ]
      - [ -9.99795973e-01, -9.87276018e-01, -9.99891996e-01,
          -9.95580018e-01, -1., -7.90651977e-01, -9.21783984e-01,
          -9.97820020e-01, -9.99865174e-01, -9.99652028e-01,
          -9.99879181e-01, -9.95599985e-01, -5.11932015e-01 ]
      - [ -1., -9.99823987e-01, -9.99979973e-01, -9.95567977e-01, -1.,
          -7.27756023e-01, -9.71780002e-01, -9.97892022e-01,
          -9.99844790e-01, -9.99656022e-01, -9.99860227e-01,
          -9.94799972e-01, -5.11932015e-01 ]
      - [ -9.99484003e-01, -9.22559977e-01, -9.95692015e-01,
          -9.99967992e-01, -9.99364018e-01, -8.17780018e-01,
          -9.58728015e-01, -9.99224007e-01, -9.99843180e-01,
          -9.99719977e-01, -9.99879181e-01, -9.94567990e-01,
          -8.36404026e-01 ]
      - [ -9.94704008e-01, -9.70507979e-01, -9.99432027e-01,
          -9.99707997e-01, -9.04468000e-01, -8.93719971e-01,
          -9.32691991e-01, -9.97568011e-01, -9.99828815e-01,
          -9.99736011e-01, -9.99872029e-01, -9.94567990e-01,
          -5.16004026e-01 ]
      - [ -9.97151971e-01, -9.97955978e-01, -9.99859989e-01,
          -9.99979973e-01, -8.87660027e-01, -8.69127989e-01,
          -9.41919982e-01, -9.99144018e-01, -9.99828815e-01,
          -9.99696016e-01, -9.99857605e-01, -9.94567990e-01,
          -8.68004024e-01 ]
      - [ -9.60864007e-01, -8.00440013e-01, -9.99899983e-01,
          -9.88572001e-01, -9.98871982e-01, -9.58172023e-01,
          -9.92299974e-01, -9.93680000e-01, -9.99827981e-01,
          -9.99795973e-01, -9.99895573e-01, -9.94567990e-01,
          -8.77604008e-01 ]
      - [ -9.99664009e-01, -9.89084005e-01, -9.98275995e-01,
          -9.99992013e-01, -9.90576029e-01, -7.81759977e-01,
          -9.51888025e-01, -9.81559992e-01, -9.99827981e-01,
          -9.99776006e-01, -9.99888003e-01, -9.94567990e-01,
          -8.67604017e-01 ]
      - [ -9.99884009e-01, -8.90164018e-01, -9.97075975e-01,
          -9.99996006e-01, -9.97803986e-01, -8.51688027e-01,
          -9.56979990e-01, -9.99207973e-01, -9.99823570e-01,
          -9.99779999e-01, -9.99884427e-01, -9.94567990e-01,
          -8.36004019e-01 ]
      - [ -9.93395984e-01, -8.26152027e-01, -9.99584019e-01,
          -9.63656008e-01, -9.99396026e-01, -9.36024010e-01,
          -9.88164008e-01, -9.86428022e-01, -9.99823570e-01,
          -9.99740005e-01, -9.99867618e-01, -9.94567990e-01,
          -8.67204010e-01 ]
      - [ -9.41803992e-01, -8.37831974e-01, -9.99575973e-01,
          -9.88331974e-01, -9.94751990e-01, -9.36035991e-01,
          -9.96932030e-01, -9.97536004e-01, -9.99821603e-01,
          -9.99675989e-01, -9.99843180e-01, -9.94567990e-01,
          -5.48403978e-01 ]
      - [ -9.56019998e-01, -8.79664004e-01, -9.99656022e-01,
          -9.86760020e-01, -9.94592011e-01, -9.10344005e-01,
          -9.91563976e-01, -9.74200010e-01, -9.99819994e-01,
          -9.99823987e-01, -9.99903619e-01, -9.94567990e-01,
          -8.76003981e-01 ]
      - [ -9.19363976e-01, -9.99195993e-01, -9.99984026e-01,
          -9.83319998e-01, -9.70812023e-01, -8.30936015e-01,
          -9.89968002e-01, -9.99220014e-01, -9.99816000e-01,
          -9.99715984e-01, -9.99852002e-01, -9.94567990e-01,
          -8.74804020e-01 ]
      - [ -9.76808012e-01, -9.96699989e-01, -9.99664009e-01,
          -9.94252026e-01, -8.78311992e-01, -8.87067974e-01,
          -9.62415993e-01, -9.97579992e-01, -9.99816000e-01,
          -9.99683976e-01, -9.99840379e-01, -9.94567990e-01,
          -5.14804006e-01 ]
      - [ -9.77572024e-01, -8.17403972e-01, -9.99943972e-01,
          -9.80307996e-01, -9.98791993e-01, -9.33300018e-01,
          -9.87439990e-01, -9.98040020e-01, -9.99812424e-01,
          -9.99783993e-01, -9.99876380e-01, -9.94567990e-01,
          -8.77204001e-01 ]
      - [ -9.38224018e-01, -8.07976007e-01, -9.99575973e-01,
          -9.97135997e-01, -9.98831987e-01, -9.55524027e-01,
          -9.97964025e-01, -9.97568011e-01, -9.99807179e-01,
          -9.99652028e-01, -9.99821603e-01, -9.94567990e-01,
          -5.87603986e-01 ]
      - [ -9.65167999e-01, -9.99292016e-01, -9.99723971e-01,
          -9.98784006e-01, -8.78220022e-01, -8.80071998e-01,
          -9.73936021e-01, -9.97604012e-01, -9.99807179e-01,
          -9.99628007e-01, -9.99814391e-01, -9.94567990e-01,
          -5.89204013e-01 ]
      - [ -9.99635994e-01, -9.92771983e-01, -9.99660015e-01, -1.,
          -9.81643975e-01, -7.64895976e-01, -9.56219971e-01,
          -9.97972012e-01, -9.99804378e-01, -9.99668002e-01,
          -9.99823570e-01, -9.94567990e-01, -7.98803985e-01 ]
      - [ -9.43884015e-01, -9.40944016e-01, -9.99960005e-01,
          -9.89895999e-01, -9.83135998e-01, -8.59503984e-01,
          -9.93164003e-01, -9.82312024e-01, -9.99800026e-01,
          -9.99747992e-01, -9.99848425e-01, -9.94567990e-01,
          -7.94004023e-01 ]
      - [ -9.99235988e-01, -7.85319984e-01, -9.98283982e-01,
          -9.93655980e-01, -9.98372018e-01, -9.62112010e-01,
          -9.67963994e-01, -9.87855971e-01, -9.99800026e-01,
          -9.99736011e-01, -9.99844015e-01, -9.94567990e-01,
          -7.98403978e-01 ]
      - [ -9.87047970e-01, -7.78972030e-01, -9.99804020e-01,
          -9.71508026e-01, -9.98135984e-01, -9.68087971e-01,
          -9.91916001e-01, -9.97327983e-01, -9.99795616e-01,
          -9.99816000e-01, -9.99876380e-01, -9.94567990e-01,
          -8.37203979e-01 ]
      - [ -9.45779979e-01, -9.99508023e-01, -9.99759972e-01,
          -9.88215983e-01, -9.00164008e-01, -8.78520012e-01,
          -9.83211994e-01, -9.97640014e-01, -9.99795616e-01,
          -9.99728024e-01, -9.99836028e-01, -9.94567990e-01,
          -5.13203979e-01 ]
      - [ -9.83551979e-01, -8.28671992e-01, -9.99711990e-01,
          -9.73335981e-01, -9.92908001e-01, -9.39844012e-01,
          -9.89455998e-01, -9.85319972e-01, -9.99791980e-01,
          -9.99804020e-01, -9.99867618e-01, -9.94567990e-01,
          -8.39204013e-01 ]
      - [ -9.99123991e-01, -8.05815995e-01, -9.99307990e-01,
          -9.78399992e-01, -9.98700023e-01, -9.39336002e-01,
          -9.80632007e-01, -9.91483986e-01, -9.99791980e-01,
          -9.99787986e-01, -9.99859571e-01, -9.94567990e-01,
          -7.98003972e-01 ]
      - [ -9.85539973e-01, -9.14171994e-01, -9.99992013e-01,
          -9.56016004e-01, -9.51828003e-01, -9.14215982e-01,
          -9.93647993e-01, -9.77388024e-01, -9.99787629e-01,
          -9.99736011e-01, -9.99831617e-01, -9.94567990e-01,
          -8.70003998e-01 ]
      - [ -9.48895991e-01, -9.99252021e-01, -9.98391986e-01,
          -9.34476018e-01, -9.97835994e-01, -8.52072001e-01,
          -9.87595975e-01, -9.74280000e-01, -9.99787629e-01,
          -9.99715984e-01, -9.99823570e-01, -9.94567990e-01,
          -7.95207977e-01 ]
      - [ -9.97995973e-01, -9.73572016e-01, -9.99931991e-01,
          -9.49140012e-01, -9.91504014e-01, -8.18920016e-01,
          -9.84440029e-01, -9.77295995e-01, -9.99768376e-01,
          -9.99823987e-01, -9.99855995e-01, -9.94567990e-01,
          -8.70404005e-01 ]
      - [ -9.69452024e-01, -9.01740015e-01, -9.97744024e-01,
          -9.78771985e-01, -9.85459983e-01, -9.17324007e-01,
          -9.75856006e-01, -9.66452003e-01, -9.99755979e-01,
          -9.99823987e-01, -9.99844015e-01, -9.94567990e-01,
          -7.94803977e-01 ]
      - [ -9.21436012e-01, -8.75007987e-01, -9.99647975e-01,
          -9.95707989e-01, -9.97488022e-01, -9.08680022e-01,
          -9.97391999e-01, -9.97439981e-01, -9.99755979e-01,
          -9.99791980e-01, -9.99827981e-01, -9.94567990e-01,
          -5.58404028e-01 ]
      - [ -9.60955977e-01, -9.90624011e-01, -9.99816000e-01,
          -9.96728003e-01, -9.76535976e-01, -7.85799980e-01,
          -9.84740019e-01, -9.97600019e-01, -9.99747992e-01,
          -9.99800026e-01, -9.99823570e-01, -9.94567990e-01,
          -5.97603977e-01 ]
      - [ -9.60579991e-01, -7.97839999e-01, -9.99971986e-01,
          -9.88380015e-01, -9.99603987e-01, -9.54140007e-01,
          -9.93059993e-01, -9.99224007e-01, -9.99743998e-01,
          -9.99859989e-01, -9.99855995e-01, -9.94567990e-01,
          -8.72403979e-01 ]
      - [ -9.34692025e-01, -8.83491993e-01, -9.99652028e-01,
          -9.96428013e-01, -9.99108016e-01, -8.87888014e-01,
          -9.93975997e-01, -9.97564018e-01, -9.99740422e-01,
          -9.99840021e-01, -9.99840379e-01, -9.94567990e-01,
          -5.89604020e-01 ]
      - [ -9.63851988e-01, -9.91627991e-01, -9.99228001e-01,
          -9.92439985e-01, -9.36671972e-01, -8.45960021e-01,
          -9.65243995e-01, -9.97775972e-01, -9.99728024e-01,
          -9.99776006e-01, -9.99791980e-01, -9.94567990e-01,
          -6.76804006e-01 ]
      - [ -9.53783989e-01, -7.69252002e-01, -9.99984026e-01,
          -9.95603979e-01, -9.99984026e-01, -9.87600029e-01,
          -9.87339973e-01, -9.99252021e-01, -9.99692023e-01,
          -9.99935985e-01, -9.99891996e-01, -9.94567990e-01,
          -5.91607988e-01 ]
      - [ -9.74532008e-01, -8.71007979e-01, -9.99988019e-01,
          -9.96227980e-01, -9.71780002e-01, -8.91351998e-01,
          -9.90383983e-01, -9.97528017e-01, -9.99687612e-01,
          -9.99931991e-01, -9.99884427e-01, -9.94567990e-01,
          -7.16784000e-01 ]
      - [ -9.34596002e-01, -8.12955976e-01, -9.99607980e-01,
          -9.97128010e-01, -9.98492002e-01, -9.55024004e-01,
          -9.97484028e-01, -9.97511983e-01, -9.99687612e-01,
          -9.99899983e-01, -9.99844015e-01, -9.94567990e-01,
          -6.29599988e-01 ]
      - [ -9.35703993e-01, -8.47963989e-01, -9.99719977e-01,
          -9.93691981e-01, -9.99804020e-01, -9.23987985e-01,
          -9.94383991e-01, -9.97543991e-01, -9.99687612e-01,
          -9.99891996e-01, -9.99836028e-01, -9.94567990e-01,
          -5.98003983e-01 ]
      - [ -9.10200000e-01, -8.50987971e-01, -9.99855995e-01,
          -9.83291984e-01, -1., -9.60044026e-01, -9.89308000e-01,
          -9.99112010e-01, -9.99687612e-01, -9.99884009e-01,
          -9.99827981e-01, -9.94567990e-01, -7.52408028e-01 ]
      - [ -9.28871989e-01, -8.21428001e-01, -9.99643981e-01,
          -9.94488001e-01, -9.94939983e-01, -9.56048012e-01,
          -9.99884009e-01, -9.97496009e-01, -9.99687612e-01,
          -9.99872029e-01, -9.99816000e-01, -9.94567990e-01,
          -5.88787973e-01 ]
      - [ -9.59815979e-01, -8.39551985e-01, -9.98256028e-01,
          -9.76311982e-01, -9.88911986e-01, -9.32483971e-01,
          -9.99920011e-01, -9.97547984e-01, -9.99683976e-01,
          -9.99907970e-01, -9.99848425e-01, -9.94567990e-01,
          -8.35583985e-01 ]
      - [ -9.26743984e-01, -8.30424011e-01, -9.98308003e-01,
          -9.94967997e-01, -9.97431993e-01, -9.48028028e-01,
          -9.99432027e-01, -9.97464001e-01, -9.99683976e-01,
          -9.99884009e-01, -9.99823570e-01, -9.94567990e-01,
          -5.98796010e-01 ]
      - [ -9.38036025e-01, -8.08211982e-01, -9.99191999e-01,
          -9.94895995e-01, -9.99220014e-01, -9.59496021e-01,
          -9.96619999e-01, -9.97128010e-01, -9.99679625e-01,
          -9.99931991e-01, -9.99876380e-01, -9.94567990e-01,
          -6.28004014e-01 ]
      - [ -9.33979988e-01, -8.07727993e-01, -9.99535978e-01,
          -9.95571971e-01, -9.99523997e-01, -9.61272001e-01,
          -9.97780025e-01, -9.97407973e-01, -9.99679625e-01,
          -9.99907970e-01, -9.99844015e-01, -9.94567990e-01,
          -6.27604008e-01 ]
      - [ -9.12855983e-01, -8.32167983e-01, -9.99840021e-01,
          -9.97012019e-01, -9.89827991e-01, -9.63603973e-01,
          -9.99880016e-01, -9.97612000e-01, -9.99679625e-01,
          -9.99863982e-01, -9.99804378e-01, -9.94567990e-01,
          -6.30384028e-01 ]
      - [ -9.23572004e-01, -8.31179976e-01, -9.99624014e-01,
          -9.95195985e-01, -9.97723997e-01, -9.48472023e-01,
          -9.99472022e-01, -9.97560024e-01, -9.99675989e-01,
          -9.99899983e-01, -9.99831617e-01, -9.94567990e-01,
          -5.98396003e-01 ]
      - [ -9.44003999e-01, -8.21748018e-01, -9.99656022e-01,
          -9.96439993e-01, -9.90728021e-01, -9.42727983e-01, -1.,
          -9.97496009e-01, -9.99671996e-01, -9.99884009e-01,
          -9.99812424e-01, -9.94567990e-01, -6.30788028e-01 ]
      - [ -9.43171978e-01, -8.22203994e-01, -9.99747992e-01,
          -9.96100008e-01, -9.88619983e-01, -9.45544004e-01,
          -9.99992013e-01, -9.97420013e-01, -9.99668419e-01,
          -9.99920011e-01, -9.99848425e-01, -9.94567990e-01,
          -6.31187975e-01 ]
      - [ -9.28376019e-01, -8.30244005e-01, -9.98232007e-01,
          -9.95639980e-01, -9.96064007e-01, -9.47712004e-01,
          -9.99271989e-01, -9.97259974e-01, -9.99668419e-01,
          -9.99903977e-01, -9.99831617e-01, -9.94567990e-01,
          -6.27996027e-01 ]
      - [ -9.31788027e-01, -8.23495984e-01, -9.99891996e-01,
          -9.97120023e-01, -9.92507994e-01, -9.50559974e-01, -1.,
          -9.97435987e-01, -9.99660373e-01, -9.99907970e-01,
          -9.99827981e-01, -9.94567990e-01, -6.29988015e-01 ]
      - [ -9.84943986e-01, -9.76724029e-01, -9.99827981e-01,
          -9.94268000e-01, -9.95003998e-01, -7.44419992e-01,
          -9.99468029e-01, -9.98143971e-01, -9.99660373e-01,
          -9.99867976e-01, -9.99787629e-01, -9.94567990e-01,
          -7.07592010e-01 ]
      - [ -9.29651976e-01, -8.20559978e-01, -9.99740005e-01,
          -9.94979978e-01, -9.92868006e-01, -9.57679987e-01,
          -9.99891996e-01, -9.97428000e-01, -9.99656022e-01,
          -9.99931991e-01, -9.99855995e-01, -9.94567990e-01,
          -5.89587986e-01 ]
      - [ -9.28496003e-01, -9.33336020e-01, -9.99963999e-01,
          -9.89740014e-01, -9.99592006e-01, -8.45404029e-01,
          -9.98412013e-01, -9.97856021e-01, -9.99656022e-01,
          -9.99888003e-01, -9.99804378e-01, -9.94567990e-01,
          -6.30804002e-01 ]
      - [ -9.99912024e-01, -7.31051981e-01, -9.99279976e-01,
          -9.99343991e-01, -9.99979973e-01, -9.65111971e-01, -1.,
          -9.98120010e-01, -9.99651611e-01, -9.99872029e-01,
          -9.99783993e-01, -9.94567990e-01, -7.13191986e-01 ]
      - [ -9.75235999e-01, -9.77887988e-01, -9.98947978e-01,
          -9.85867977e-01, -9.64811981e-01, -8.24347973e-01,
          -9.67648029e-01, -9.98052001e-01, -9.99647975e-01,
          -9.99872029e-01, -9.99779999e-01, -9.94567990e-01,
          -6.68803990e-01 ]
      - [ -9.36559975e-01, -9.95184004e-01, -9.99520004e-01,
          -9.93799984e-01, -9.90368009e-01, -7.84124017e-01,
          -9.95591998e-01, -9.97651994e-01, -9.99635994e-01,
          -9.99916017e-01, -9.99816000e-01, -9.94567990e-01,
          -6.75595999e-01 ]
      - [ -9.45303977e-01, -9.83388007e-01, -9.99819994e-01,
          -9.98911977e-01, -9.95956004e-01, -7.96880007e-01,
          -9.73360002e-01, -9.99180019e-01, -9.99632418e-01,
          -9.99899983e-01, -9.99795616e-01, -9.94567990e-01,
          -6.37607992e-01 ]
   decision_functions:
      -
         sv_count: 55
         rho: 2.4433373933344073e-02
         alpha: [ 2.6958125461548343e-01, 1.1730552849072087e+00,
             1.3218463014126560e+00, 2.4209260642137442e+00,
             5.7721286788438464e+00, 10., 10., 3.4887843450371978e+00,
             7.5342976917631841e+00, 4.5791104935942295e+00,
             7.5812195761376688e-01, 10., 5.2198544473030477e+00,
             1.6174740918022792e+00, 3.9441033733592969e+00,
             3.2600007944325817e+00, 1.3774554961665213e+00,
             2.5211223618761913e+00, 9.9798121976902632e+00,
             9.2403939173722527e-01, 2.7542394456716472e+00,
             1.1427988498382848e+00, 6.4195289074767042e-02,
             3.9282846713666641e+00, 2.5230346586152930e-01,
             -4.6740563866901486e-01, -6.4943186814409226e-01,
             -1.5954259488915434e-01, -3.0184479454919344e-01,
             -2.5048203361734078e-01, -2.2611950603816258e+00,
             -1.3192678326106884e+00, -2.7623060232482253e+00,
             -3.7214437424173958e+00, -10., -8.7885629121192466e+00,
             -3.9637662060231627e+00, -3.0430323828990619e-01, -10.,
             -10., -3.9302207873548212e-01, -6.2689423421540702e-01,
             -2.3696012642788302e+00, -9.4224916165169303e-01,
             -7.3053426806815169e+00, -1.2804218263776820e-01,
             -9.9385777866815916e-01, -3.1114086418977474e+00,
             -1.4792271587229642e+00, -2.6268063540865021e+00,
             -3.7680888753914443e-01, -8.1678462657717663e+00,
             -3.8715015795217878e-01, -10., -4.4572715638341637e-01 ]
         index: [ 1, 3, 4, 6, 8, 9, 10, 15, 16, 17, 19, 20, 22, 24, 25,
             27, 28, 30, 31, 32, 33, 34, 36, 38, 39, 40, 41, 42, 43, 44,
             45, 46, 47, 48, 49, 50, 51, 52, 53, 54, 55, 56, 57, 58, 59,
             60, 61, 62, 63, 65, 66, 67, 68, 69, 71 ]
      -
         sv_count: 51
         rho: 6.6869886737402962e-02
         alpha: [ 5.4767735558676356e-01, 10., 1.7298827139374995e+00,
             1.8537519657722598e-01, 8.8718920059790152e-01,
             4.7212161308422057e-01, 9.9963396160344908e-01, 10.,
             6.2314605985796079e-01, 10., 5.9153390177712373e-01,
             1.2730130282612580e+00, 4.7655942566262000e-01,
             7.3599715454293246e-01, 10., 2.4988404924555693e-01,
             8.0706969973452114e-01, 3.5621050692573381e-01,
             5.8189603533645275e+00, 2.0349206658285772e+00, 10.,
             6.8230038416030969e-01, 7.2802094245178173e-01,
             2.6092300077419726e+00, 10., 10., 6.8169684515455531e-01,
             10., 10., -6.0181668123708425e+00, -1.2281772515492395e+00,
             -3.8742977664227096e+00, -10., -4.5505843438965998e+00,
             -10., -10., -10., -3.6320837690628212e+00, -10.,
             -3.5301167212891964e+00, -10., -3.8434220974347517e-02,
             -2.7723692782426141e+00, -4.5287142573779322e+00, -10.,
             -7.2784260758659436e-01, -10., -9.0696023063867681e-01,
             -2.1942234528760921e-01, -7.8808010228331130e-02,
             -3.8444545116898066e-01 ]
         index: [ 0, 2, 5, 6, 7, 8, 9, 11, 12, 13, 14, 17, 18, 20, 21,
             23, 24, 25, 26, 27, 28, 29, 31, 32, 33, 35, 36, 37, 39, 72,
             73, 74, 75, 76, 77, 78, 79, 80, 81, 82, 83, 84, 85, 86, 87,
             88, 89, 91, 92, 93, 94 ]
      -
         sv_count: 29
         rho: -5.3562803538188464e-01
         alpha: [ 3.8090864632325883e-03, 4.2911601144973451e-02,
             2.9688032248024165e-01, 2.2110976351310296e+00,
             1.8578442736420955e+00, 1.1976096762766698e-01,
             2.2190724311999740e-01, 10., 7.2403925479702602e-01,
             2.5794520692010081e-01, 6.7490174734428585e+00,
             5.3299619127111775e-01, 1.3350357423405579e-01,
             1.3673269790144702e+00, 2.8798017265825657e+00,
             1.2865229465247121e+00, 7.5994570681718407e+00,
             5.0923662295437531e+00, -3.7560345443457686e+00,
             -7.4302593095906966e-01, -10., -9.1164343976215562e-02,
             -5.1949066418043239e+00, -10., -7.8358075749025480e-01,
             -3.1885030875328830e+00, -1.3549534630416442e+00,
             -5.2260731911581670e+00, -1.0389458198034156e+00 ]
         index: [ 40, 43, 44, 49, 50, 51, 52, 54, 56, 57, 61, 62, 64, 66,
             68, 69, 70, 71, 72, 73, 75, 76, 77, 78, 88, 90, 91, 92, 94 ]
