%YAML:1.0
---
opencv_ml_svm:
   format: 3
   svmType: C_SVC
   kernel:
      type: RBF
      gamma: 5.
   C: 2.6699999999999999e+00
   term_criteria: { epsilon:1.1920928955078125e-07, iterations:1000 }
   var_count: 13
   class_count: 3
   class_labels: !!opencv-matrix
      rows: 3
      cols: 1
      dt: i
      data: [ 0, 1, 2 ]
   sv_total: 18
   support_vectors:
      - [ -9.44624007e-01, -9.96079981e-01, -9.98243988e-01,
          -9.45436001e-01, -9.98387992e-01, -8.36215973e-01,
          -9.88691986e-01, -9.85119998e-01, -9.99791980e-01,
          -9.99723971e-01, -9.99831617e-01, -9.94400024e-01,
          -7.94807971e-01 ]
      - [ -9.76819992e-01, -8.32171977e-01, -9.99740005e-01,
          -9.52359974e-01, -9.99907970e-01, -9.54119980e-01,
          -9.80288029e-01, -9.97391999e-01, -9.99787629e-01,
          -9.99827981e-01, -9.99876380e-01, -9.94395971e-01,
          -8.38756025e-01 ]
      - [ -9.60424006e-01, -8.11367989e-01, -9.99639988e-01,
          -9.73900020e-01, -9.99855995e-01, -9.71283972e-01,
          -9.79044020e-01, -9.97283995e-01, -9.99787629e-01,
          -9.99779999e-01, -9.99852002e-01, -9.94567990e-01,
          -5.56764007e-01 ]
      - [ -9.85459983e-01, -9.47647989e-01, -9.87627983e-01,
          -9.40284014e-01, -9.99387980e-01, -8.75508010e-01,
          -9.68307972e-01, -9.88575995e-01, -9.99772012e-01,
          -9.99779999e-01, -9.99836028e-01, -9.94567990e-01,
          -7.91208029e-01 ]
      - [ -9.65044022e-01, -8.51664007e-01, -1., -9.89655972e-01, -1.,
          -9.34740007e-01, -9.53683972e-01, -9.98012006e-01,
          -9.99692023e-01, -9.99916017e-01, -9.99863982e-01,
          -9.94567990e-01, -6.38743997e-01 ]
      - [ -9.51004028e-01, -7.96151996e-01, -1., -9.98552024e-01,
          -9.99759972e-01, -9.49779987e-01, -9.99544024e-01,
          -9.98008013e-01, -9.99671996e-01, -9.99891996e-01,
          -9.99783993e-01, -9.94563997e-01, -6.32391989e-01 ]
      - [ -9.53728020e-01, -8.09620023e-01, -9.98971999e-01,
          -9.84803975e-01, -9.99764025e-01, -9.64583993e-01,
          -9.84080017e-01, -9.97247994e-01, -9.99635994e-01,
          -9.99943972e-01, -9.99859571e-01, -9.94567990e-01,
          -6.69164002e-01 ]
      - [ -9.99539971e-01, -8.37743998e-01, -9.99499977e-01,
          -9.98516023e-01, -9.96752024e-01, -8.74396026e-01,
          -9.91764009e-01, -9.94588017e-01, -9.99848425e-01,
          -9.99740005e-01, -9.99891996e-01, -9.94575977e-01,
          -9.16004002e-01 ]
      - [ -1., -1., -1., -1., -1., -7.48236001e-01, -9.47163999e-01,
          -9.97399986e-01, -9.99818027e-01, -9.99679983e-01,
          -9.99849200e-01, -9.94668007e-01, -5.53932011e-01 ]
      - [ -1., -1., -1., -1., -1., -7.49628007e-01, -9.45240021e-01,
          -9.97932017e-01, -9.99814391e-01, -9.99635994e-01,
          -9.99824405e-01, -9.95495975e-01, -5.55931985e-01 ]
      - [ -9.29127991e-01, -9.99836028e-01, -9.85036016e-01,
          -8.97203982e-01, -1., -8.99088025e-01, -9.83331978e-01,
          -9.99176025e-01, -9.99807179e-01, -9.99652028e-01,
          -9.99821603e-01, -9.94567990e-01, -7.91607976e-01 ]
      - [ -9.48895991e-01, -9.99252021e-01, -9.98391986e-01,
          -9.34476018e-01, -9.97835994e-01, -8.52072001e-01,
          -9.87595975e-01, -9.74280000e-01, -9.99787629e-01,
          -9.99715984e-01, -9.99823570e-01, -9.94575977e-01,
          -7.95207977e-01 ]
      - [ -9.66171980e-01, -8.86720002e-01, -9.99776006e-01,
          -9.96739984e-01, -9.98347998e-01, -8.48735988e-01,
          -9.98184025e-01, -9.98124003e-01, -9.99687612e-01,
          -9.99816000e-01, -9.99776423e-01, -9.94563997e-01,
          -6.69992030e-01 ]
      - [ -9.64811981e-01, -8.87243986e-01, -9.99916017e-01,
          -9.97116029e-01, -9.98604000e-01, -8.48240018e-01,
          -9.98748004e-01, -9.98120010e-01, -9.99679625e-01,
          -9.99840021e-01, -9.99783993e-01, -9.94567990e-01,
          -6.67931974e-01 ]
      - [ -9.95747983e-01, -9.99459982e-01, -9.99931991e-01,
          -9.76212025e-01, -9.96991992e-01, -7.29272008e-01,
          -9.97024000e-01, -9.98160005e-01, -9.99668419e-01,
          -9.99903977e-01, -9.99831617e-01, -9.93752003e-01,
          -6.72792017e-01 ]
      - [ -9.68375981e-01, -8.40232015e-01, -9.99563992e-01,
          -9.96295989e-01, -9.99216020e-01, -8.93104017e-01,
          -9.97864008e-01, -9.98148024e-01, -9.99660373e-01,
          -9.99895990e-01, -9.99816000e-01, -9.94563997e-01,
          -6.70791984e-01 ]
      - [ -9.64663982e-01, -7.96995997e-01, -9.99732018e-01,
          -9.97111976e-01, -9.99523997e-01, -9.38275993e-01,
          -9.98391986e-01, -9.98103976e-01, -9.99660373e-01,
          -9.99884009e-01, -9.99804378e-01, -9.94563997e-01,
          -6.70391977e-01 ]
      - [ -9.74763989e-01, -8.63788009e-01, -9.99948025e-01,
          -9.77208018e-01, -1., -9.16620016e-01, -9.62339997e-01,
          -9.98131990e-01, -9.99607623e-01, -9.99907970e-01,
          -9.99783993e-01, -9.94567990e-01, -6.73551977e-01 ]
   decision_functions:
      -
         sv_count: 10
         rho: 4.8595439270138718e-01
         alpha: [ 2.6699999999999999e+00, 2.6699999999999999e+00,
             1.9205372248626554e-01, 2.6699999999999999e+00,
             2.6699999999999999e+00, -2.6699999999999999e+00,
             -1.9205372248626554e-01, -2.6699999999999999e+00,
             -2.6699999999999999e+00, -2.6699999999999999e+00 ]
         index: [ 0, 1, 2, 3, 4, 7, 8, 9, 10, 11 ]
      -
         sv_count: 12
         rho: -8.1613673329353353e-01
         alpha: [ 2.6699999999999999e+00, 2.5887870520143297e+00,
             2.6699999999999999e+00, 2.6699999999999999e+00,
             2.6699999999999999e+00, 2.6699999999999999e+00,
             -2.6699999999999999e+00, -2.6699999999999999e+00,
             -2.5887870520143297e+00, -2.6699999999999999e+00,
             -2.6699999999999999e+00, -2.6699999999999999e+00 ]
         index: [ 0, 2, 3, 4, 5, 6, 12, 13, 14, 15, 16, 17 ]
      -
         sv_count: 10
         rho: -1.2816639542042561e+00
         alpha: [ 2.6699999999999999e+00, 2.6699999999999999e+00,
             2.6699999999999999e+00, 1.6440531823809372e+00,
             2.4710122582778005e+00, -2.6699999999999999e+00,
             -2.6699999999999999e+00, -2.6699999999999999e+00,
             -1.4450654406587378e+00, -2.6699999999999999e+00 ]
         index: [ 7, 8, 9, 10, 11, 12, 13, 14, 15, 17 ]
