%YAML:1.0
---
opencv_ml_svm:
   format: 3
   svmType: C_SVC
   kernel:
      type: RBF
      gamma: 5.
   C: 2.6699999999999999e+00
   term_criteria: { epsilon:1.1920928955078125e-07, iterations:1000 }
   var_count: 13
   class_count: 3
   class_labels: !!opencv-matrix
      rows: 3
      cols: 1
      dt: i
      data: [ 0, 1, 2 ]
   sv_total: 19
   support_vectors:
      - [ 13844., 980., 439., 13641., 403., 40946., 2827., 3720., 52.,
          69., 4.20999985e+01, 1400., 51298. ]
      - [ 5795., 41957., 65., 11910., 23., 11470., 4928., 652.,
          5.30999985e+01, 43., 3.08999996e+01, 1401., 40311. ]
      - [ 9894., 47158., 90., 6525., 36., 7179., 5239., 679.,
          5.30999985e+01, 55., 37., 1358., 110809. ]
      - [ 3635., 13088., 3093., 14929., 153., 31123., 7923., 2856., 57.,
          55., 41., 1358., 52198. ]
      - [ 8739., 37084., 0., 2586., 0., 16315., 11579., 497., 77., 21.,
          34., 1358., 90314. ]
      - [ 12249., 50962., 0., 362., 60., 12555., 114., 498., 82., 27.,
          54., 1359., 91902. ]
      - [ 11568., 47595., 257., 3799., 59., 8854., 3980., 688., 91., 14.,
          3.50999985e+01, 1358., 82709. ]
      - [ 115., 40564., 125., 371., 812., 31401., 2059., 1353.,
          3.79000015e+01, 65., 27., 1356., 20999. ]
      - [ 75., 202., 2., 371., 4., 70454., 5046., 646., 3.99000015e+01,
          89., 37., 1357., 110909. ]
      - [ 0., 0., 0., 0., 0., 62941., 13209., 650., 4.55000000e+01, 80.,
          3.77000008e+01, 1333., 111517. ]
      - [ 0., 0., 0., 0., 0., 62593., 13690., 517., 4.64000015e+01, 91.,
          4.39000015e+01, 1126., 111017. ]
      - [ 17718., 41., 3741., 25699., 0., 25228., 4167., 206.,
          4.82000008e+01, 87., 4.45999985e+01, 1358., 52098. ]
      - [ 12776., 187., 402., 16381., 541., 36982., 3101., 6430.,
          5.30999985e+01, 71., 4.40999985e+01, 1356., 51198. ]
      - [ 8457., 28320., 56., 815., 413., 37816., 454., 469.,
          7.80999985e+01, 46., 5.59000015e+01, 1359., 82502. ]
      - [ 8797., 28189., 21., 721., 349., 37940., 313., 470.,
          8.00999985e+01, 40., 54., 1358., 83017. ]
      - [ 1063., 135., 17., 5947., 752., 67682., 744., 460.,
          8.29000015e+01, 24., 4.20999985e+01, 1562., 81802. ]
      - [ 7906., 39942., 109., 926., 196., 26724., 534., 463.,
          8.49000015e+01, 26., 46., 1359., 82302. ]
      - [ 8834., 50751., 67., 722., 119., 15431., 402., 474.,
          8.49000015e+01, 29., 4.89000015e+01, 1359., 82402. ]
      - [ 6309., 34053., 13., 5698., 0., 20845., 9415., 467.,
          9.80999985e+01, 23., 54., 1358., 81612. ]
   decision_functions:
      -
         sv_count: 13
         rho: -7.6923076923076927e-02
         alpha: [ 9.2307692766189575e-01, 9.2307692766189575e-01,
             9.2307692766189575e-01, 9.2307692766189575e-01,
             9.2307692766189575e-01, 9.2307692766189575e-01,
             9.2307692766189575e-01, -1.0769230723381042e+00,
             -1.0769230723381042e+00, -1.0769230723381042e+00,
             -1.0769230723381042e+00, -1.0769231319427490e+00,
             -1.0769230723381042e+00 ]
         index: [ 0, 1, 2, 3, 4, 5, 6, 7, 8, 9, 10, 11, 12 ]
      -
         sv_count: 13
         rho: -7.6923076923076927e-02
         alpha: [ 9.2307692766189575e-01, 9.2307692766189575e-01,
             9.2307692766189575e-01, 9.2307692766189575e-01,
             9.2307692766189575e-01, 9.2307692766189575e-01,
             9.2307692766189575e-01, -1.0769230723381042e+00,
             -1.0769230723381042e+00, -1.0769230723381042e+00,
             -1.0769230723381042e+00, -1.0769231319427490e+00,
             -1.0769230723381042e+00 ]
         index: [ 0, 1, 2, 3, 4, 5, 6, 13, 14, 15, 16, 17, 18 ]
      -
         sv_count: 12
         rho: 0.
         alpha: [ 1., 1., 1., 1., 1., 1., -1., -1., -1., -1., -1., -1. ]
         index: [ 7, 8, 9, 10, 11, 12, 13, 14, 15, 16, 17, 18 ]
